<?xml version="1.0"?>
<opencv_storage>
<cascade>
  <stageType>BOOST</stageType>
  <featureType>HAAR</featureType>
  <height>20</height>
  <width>20</width>
  <stageParams>
    <boostType>GAB</boostType>
    <minHitRate>9.9500000476837158e-01</minHitRate>
    <maxFalseAlarm>5.0000000000000000e-01</maxFalseAlarm>
    <weightTrimRate>9.4999999999999996e-01</weightTrimRate>
    <maxDepth>1</maxDepth>
    <maxWeakCount>100</maxWeakCount></stageParams>
  <featureParams>
    <maxCatCount>0</maxCatCount>
    <featSize>1</featSize>
    <mode>BASIC</mode></featureParams>
  <stageNum>15</stageNum>
  <stages>
    <!-- stage 0 -->
    <_>
      <maxWeakCount>2</maxWeakCount>
      <stageThreshold>-1.3649596273899078e-01</stageThreshold>
      <weakClassifiers>
        <_>
          <internalNodes>
            0 -1 23 -3.1291987746953964e-02</internalNodes>
          <leafValues>
            8.7921243906021118e-01 -9.6663659811019897e-01</leafValues></_>
        <_>
          <internalNodes>
            0 -1 30 -3.4039802849292755e-02</internalNodes>
          <leafValues>
            8.3014065027236938e-01 -8.6877560615539551e-01</leafValues></_></weakClassifiers></_>
    <!-- stage 1 -->
    <_>
      <maxWeakCount>4</maxWeakCount>
      <stageThreshold>-1.2000094652175903e+00</stageThreshold>
      <weakClassifiers>
        <_>
          <internalNodes>
            0 -1 7 -2.7851272374391556e-02</internalNodes>
          <leafValues>
            7.6619040966033936e-01 -7.7167218923568726e-01</leafValues></_>
        <_>
          <internalNodes>
            0 -1 35 6.7588672041893005e-02</internalNodes>
          <leafValues>
            -8.1863284111022949e-01 6.6708511114120483e-01</leafValues></_>
        <_>
          <internalNodes>
            0 -1 14 5.4644536226987839e-02</internalNodes>
          <leafValues>
            -6.4498603343963623e-01 6.7154008150100708e-01</leafValues></_>
        <_>
          <internalNodes>
            0 -1 3 1.0754080489277840e-02</internalNodes>
          <leafValues>
            -5.0258094072341919e-01 7.2270631790161133e-01</leafValues></_></weakClassifiers></_>
    <!-- stage 2 -->
    <_>
      <maxWeakCount>4</maxWeakCount>
      <stageThreshold>-1.0299770832061768e+00</stageThreshold>
      <weakClassifiers>
        <_>
          <internalNodes>
            0 -1 34 4.8115264624357224e-02</internalNodes>
          <leafValues>
            -9.0340906381607056e-01 7.1254354715347290e-01</leafValues></_>
        <_>
          <internalNodes>
            0 -1 55 2.4690575897693634e-02</internalNodes>
          <leafValues>
            -7.3184090852737427e-01 5.4336506128311157e-01</leafValues></_>
        <_>
          <internalNodes>
            0 -1 31 -1.0853489860892296e-02</internalNodes>
          <leafValues>
            7.0093405246734619e-01 -5.1172912120819092e-01</leafValues></_>
        <_>
          <internalNodes>
            0 -1 44 1.3821106404066086e-03</internalNodes>
          <leafValues>
            -4.9895066022872925e-01 6.5506494045257568e-01</leafValues></_></weakClassifiers></_>
    <!-- stage 3 -->
    <_>
      <maxWeakCount>4</maxWeakCount>
      <stageThreshold>-6.1366307735443115e-01</stageThreshold>
      <weakClassifiers>
        <_>
          <internalNodes>
            0 -1 20 1.6946833580732346e-02</internalNodes>
          <leafValues>
            -8.3930778503417969e-01 6.5589934587478638e-01</leafValues></_>
        <_>
          <internalNodes>
            0 -1 24 -5.0234459340572357e-02</internalNodes>
          <leafValues>
            5.0480365753173828e-01 -7.6332342624664307e-01</leafValues></_>
        <_>
          <internalNodes>
            0 -1 10 -2.3098036646842957e-02</internalNodes>
          <leafValues>
            3.3786654472351074e-01 -9.2018818855285645e-01</leafValues></_>
        <_>
          <internalNodes>
            0 -1 62 -1.0445708408951759e-02</internalNodes>
          <leafValues>
            6.5110152959823608e-01 -4.8257601261138916e-01</leafValues></_></weakClassifiers></_>
    <!-- stage 4 -->
    <_>
      <maxWeakCount>5</maxWeakCount>
      <stageThreshold>-1.0016503334045410e+00</stageThreshold>
      <weakClassifiers>
        <_>
          <internalNodes>
            0 -1 16 -7.6086074113845825e-03</internalNodes>
          <leafValues>
            6.3117873668670654e-01 -6.7211204767227173e-01</leafValues></_>
        <_>
          <internalNodes>
            0 -1 60 2.9186233878135681e-03</internalNodes>
          <leafValues>
            -5.1152032613754272e-01 6.3947081565856934e-01</leafValues></_>
        <_>
          <internalNodes>
            0 -1 29 -1.5266768634319305e-02</internalNodes>
          <leafValues>
            3.5542836785316467e-01 -8.7854224443435669e-01</leafValues></_>
        <_>
          <internalNodes>
            0 -1 2 1.0385451838374138e-02</internalNodes>
          <leafValues>
            -5.4870611429214478e-01 4.9655175209045410e-01</leafValues></_>
        <_>
          <internalNodes>
            0 -1 6 -1.7319373786449432e-02</internalNodes>
          <leafValues>
            3.2529643177986145e-01 -8.4505152702331543e-01</leafValues></_></weakClassifiers></_>
    <!-- stage 5 -->
    <_>
      <maxWeakCount>5</maxWeakCount>
      <stageThreshold>-7.8433012962341309e-01</stageThreshold>
      <weakClassifiers>
        <_>
          <internalNodes>
            0 -1 45 2.9107223963364959e-04</internalNodes>
          <leafValues>
            5.9090173244476318e-01 -8.9392775297164917e-01</leafValues></_>
        <_>
          <internalNodes>
            0 -1 45 -2.2704688308294863e-04</internalNodes>
          <leafValues>
            -8.4124851226806641e-01 4.8521450161933899e-01</leafValues></_>
        <_>
          <internalNodes>
            0 -1 13 -2.3358471691608429e-02</internalNodes>
          <leafValues>
            5.7729798555374146e-01 -5.7233220338821411e-01</leafValues></_>
        <_>
          <internalNodes>
            0 -1 38 -3.7436992861330509e-03</internalNodes>
          <leafValues>
            6.8498933315277100e-01 -3.8467180728912354e-01</leafValues></_>
        <_>
          <internalNodes>
            0 -1 22 -9.8945051431655884e-03</internalNodes>
          <leafValues>
            5.5603265762329102e-01 -4.8827403783798218e-01</leafValues></_></weakClassifiers></_>
    <!-- stage 6 -->
    <_>
      <maxWeakCount>5</maxWeakCount>
      <stageThreshold>-1.0514752864837646e+00</stageThreshold>
      <weakClassifiers>
        <_>
          <internalNodes>
            0 -1 9 -1.4053220860660076e-02</internalNodes>
          <leafValues>
            6.6237068176269531e-01 -5.7709693908691406e-01</leafValues></_>
        <_>
          <internalNodes>
            0 -1 27 -8.7587043642997742e-02</internalNodes>
          <leafValues>
            4.5950576663017273e-01 -6.8553978204727173e-01</leafValues></_>
        <_>
          <internalNodes>
            0 -1 36 2.3988992325030267e-04</internalNodes>
          <leafValues>
            3.1518375873565674e-01 -9.3071013689041138e-01</leafValues></_>
        <_>
          <internalNodes>
            0 -1 36 -1.8959940643981099e-04</internalNodes>
          <leafValues>
            -9.1068768501281738e-01 4.4644826650619507e-01</leafValues></_>
        <_>
          <internalNodes>
            0 -1 63 -8.5925990715622902e-03</internalNodes>
          <leafValues>
            5.1485729217529297e-01 -5.5047053098678589e-01</leafValues></_></weakClassifiers></_>
    <!-- stage 7 -->
    <_>
      <maxWeakCount>5</maxWeakCount>
      <stageThreshold>-9.9384057521820068e-01</stageThreshold>
      <weakClassifiers>
        <_>
          <internalNodes>
            0 -1 39 2.5524967350065708e-04</internalNodes>
          <leafValues>
            5.6238126754760742e-01 -8.8851350545883179e-01</leafValues></_>
        <_>
          <internalNodes>
            0 -1 39 -1.8426202586852014e-04</internalNodes>
          <leafValues>
            -8.6251747608184814e-01 5.0430881977081299e-01</leafValues></_>
        <_>
          <internalNodes>
            0 -1 58 -6.9287065416574478e-03</internalNodes>
          <leafValues>
            5.6689977645874023e-01 -4.9617949128150940e-01</leafValues></_>
        <_>
          <internalNodes>
            0 -1 50 -9.3992957845330238e-03</internalNodes>
          <leafValues>
            3.7949427962303162e-01 -7.2183722257614136e-01</leafValues></_>
        <_>
          <internalNodes>
            0 -1 25 -1.6402187757194042e-03</internalNodes>
          <leafValues>
            4.9459996819496155e-01 -5.3876692056655884e-01</leafValues></_></weakClassifiers></_>
    <!-- stage 8 -->
    <_>
      <maxWeakCount>4</maxWeakCount>
      <stageThreshold>-6.9468832015991211e-01</stageThreshold>
      <weakClassifiers>
        <_>
          <internalNodes>
            0 -1 40 -2.4744815891608596e-04</internalNodes>
          <leafValues>
            -9.1757780313491821e-01 5.6900650262832642e-01</leafValues></_>
        <_>
          <internalNodes>
            0 -1 47 2.0460467203520238e-04</internalNodes>
          <leafValues>
            3.6585074663162231e-01 -7.2725188732147217e-01</leafValues></_>
        <_>
          <internalNodes>
            0 -1 12 7.2651272639632225e-03</internalNodes>
          <leafValues>
            -7.9570746421813965e-01 2.9191571474075317e-01</leafValues></_>
        <_>
          <internalNodes>
            0 -1 23 -3.7473209202289581e-02</internalNodes>
          <leafValues>
            2.5926446914672852e-01 -9.2083340883255005e-01</leafValues></_></weakClassifiers></_>
    <!-- stage 9 -->
    <_>
      <maxWeakCount>4</maxWeakCount>
      <stageThreshold>-6.8135309219360352e-01</stageThreshold>
      <weakClassifiers>
        <_>
          <internalNodes>
            0 -1 28 -6.9807665422558784e-03</internalNodes>
          <leafValues>
            5.6064730882644653e-01 -7.9348689317703247e-01</leafValues></_>
        <_>
          <internalNodes>
            0 -1 1 3.5370774567127228e-02</internalNodes>
          <leafValues>
            -5.8184969425201416e-01 4.6225067973136902e-01</leafValues></_>
        <_>
          <internalNodes>
            0 -1 46 -2.0452668832149357e-04</internalNodes>
          <leafValues>
            -8.1379961967468262e-01 3.3651047945022583e-01</leafValues></_>
        <_>
          <internalNodes>
            0 -1 42 -1.8880373681895435e-04</internalNodes>
          <leafValues>
            -9.7781139612197876e-01 1.5364888310432434e-01</leafValues></_></weakClassifiers></_>
    <!-- stage 10 -->
    <_>
      <maxWeakCount>6</maxWeakCount>
      <stageThreshold>-7.7382147312164307e-01</stageThreshold>
      <weakClassifiers>
        <_>
          <internalNodes>
            0 -1 49 1.3256844249553978e-04</internalNodes>
          <leafValues>
            5.6831997632980347e-01 -8.4160000085830688e-01</leafValues></_>
        <_>
          <internalNodes>
            0 -1 49 -6.9785339292138815e-05</internalNodes>
          <leafValues>
            -8.6414855718612671e-01 3.2759594917297363e-01</leafValues></_>
        <_>
          <internalNodes>
            0 -1 17 1.5953364782035351e-03</internalNodes>
          <leafValues>
            -6.8407958745956421e-01 3.5749822854995728e-01</leafValues></_>
        <_>
          <internalNodes>
            0 -1 32 -7.5561739504337311e-03</internalNodes>
          <leafValues>
            4.3825095891952515e-01 -5.6848984956741333e-01</leafValues></_>
        <_>
          <internalNodes>
            0 -1 61 7.2097091469913721e-04</internalNodes>
          <leafValues>
            -5.5224776268005371e-01 4.2360737919807434e-01</leafValues></_>
        <_>
          <internalNodes>
            0 -1 3 1.3124138116836548e-02</internalNodes>
          <leafValues>
            -4.3759617209434509e-01 4.9979785084724426e-01</leafValues></_></weakClassifiers></_>
    <!-- stage 11 -->
    <_>
      <maxWeakCount>5</maxWeakCount>
      <stageThreshold>-6.7069512605667114e-01</stageThreshold>
      <weakClassifiers>
        <_>
          <internalNodes>
            0 -1 43 3.1670194584876299e-04</internalNodes>
          <leafValues>
            5.2166593074798584e-01 -9.3601649999618530e-01</leafValues></_>
        <_>
          <internalNodes>
            0 -1 11 -1.9340966828167439e-03</internalNodes>
          <leafValues>
            4.5626655220985413e-01 -5.0211757421493530e-01</leafValues></_>
        <_>
          <internalNodes>
            0 -1 5 1.2361392378807068e-02</internalNodes>
          <leafValues>
            -3.4154158830642700e-01 6.2219071388244629e-01</leafValues></_>
        <_>
          <internalNodes>
            0 -1 4 -3.2204098533838987e-03</internalNodes>
          <leafValues>
            4.5862159132957458e-01 -5.3334140777587891e-01</leafValues></_>
        <_>
          <internalNodes>
            0 -1 46 1.9609261653386056e-04</internalNodes>
          <leafValues>
            1.8463954329490662e-01 -9.2340922355651855e-01</leafValues></_></weakClassifiers></_>
    <!-- stage 12 -->
    <_>
      <maxWeakCount>7</maxWeakCount>
      <stageThreshold>-1.1380251646041870e+00</stageThreshold>
      <weakClassifiers>
        <_>
          <internalNodes>
            0 -1 53 -2.6538694510236382e-04</internalNodes>
          <leafValues>
            6.1520612239837646e-01 -4.9920928478240967e-01</leafValues></_>
        <_>
          <internalNodes>
            0 -1 26 -1.3183772098273039e-03</internalNodes>
          <leafValues>
            4.7463381290435791e-01 -4.9794501066207886e-01</leafValues></_>
        <_>
          <internalNodes>
            0 -1 51 -7.0456066168844700e-05</internalNodes>
          <leafValues>
            -7.2064203023910522e-01 3.1129214167594910e-01</leafValues></_>
        <_>
          <internalNodes>
            0 -1 54 9.9705520551651716e-04</internalNodes>
          <leafValues>
            -5.9067362546920776e-01 3.9481395483016968e-01</leafValues></_>
        <_>
          <internalNodes>
            0 -1 18 -5.1538817584514618e-02</internalNodes>
          <leafValues>
            -8.8576287031173706e-01 1.9902706146240234e-01</leafValues></_>
        <_>
          <internalNodes>
            0 -1 19 -4.4869715929962695e-04</internalNodes>
          <leafValues>
            2.7952709794044495e-01 -6.3705921173095703e-01</leafValues></_>
        <_>
          <internalNodes>
            0 -1 59 -2.5203963741660118e-03</internalNodes>
          <leafValues>
            5.0031328201293945e-01 -3.9603608846664429e-01</leafValues></_></weakClassifiers></_>
    <!-- stage 13 -->
    <_>
      <maxWeakCount>7</maxWeakCount>
      <stageThreshold>-5.2731078863143921e-01</stageThreshold>
      <weakClassifiers>
        <_>
          <internalNodes>
            0 -1 52 -2.7006072923541069e-04</internalNodes>
          <leafValues>
            -7.5132274627685547e-01 5.2654725313186646e-01</leafValues></_>
        <_>
          <internalNodes>
            0 -1 44 2.0666541531682014e-03</internalNodes>
          <leafValues>
            -4.1689908504486084e-01 5.5182832479476929e-01</leafValues></_>
        <_>
          <internalNodes>
            0 -1 37 -6.5832417458295822e-03</internalNodes>
          <leafValues>
            3.0433323979377747e-01 -8.8372296094894409e-01</leafValues></_>
        <_>
          <internalNodes>
            0 -1 57 1.8930509686470032e-03</internalNodes>
          <leafValues>
            -6.2251383066177368e-01 3.1931158900260925e-01</leafValues></_>
        <_>
          <internalNodes>
            0 -1 33 1.6325520118698478e-03</internalNodes>
          <leafValues>
            -8.4665822982788086e-01 2.1803629398345947e-01</leafValues></_>
        <_>
          <internalNodes>
            0 -1 8 3.5638846457004547e-03</internalNodes>
          <leafValues>
            1.9711560010910034e-01 -8.2123160362243652e-01</leafValues></_>
        <_>
          <internalNodes>
            0 -1 0 1.9058797508478165e-02</internalNodes>
          <leafValues>
            -3.9731553196907043e-01 5.3064775466918945e-01</leafValues></_></weakClassifiers></_>
    <!-- stage 14 -->
    <_>
      <maxWeakCount>6</maxWeakCount>
      <stageThreshold>-8.5937255620956421e-01</stageThreshold>
      <weakClassifiers>
        <_>
          <internalNodes>
            0 -1 41 2.3261818569153547e-04</internalNodes>
          <leafValues>
            5.0680786371231079e-01 -9.5505619049072266e-01</leafValues></_>
        <_>
          <internalNodes>
            0 -1 48 -6.6910382884088904e-05</internalNodes>
          <leafValues>
            -6.4713126420974731e-01 3.8468316197395325e-01</leafValues></_>
        <_>
          <internalNodes>
            0 -1 44 1.3031919952481985e-03</internalNodes>
          <leafValues>
            -5.2103763818740845e-01 4.5786243677139282e-01</leafValues></_>
        <_>
          <internalNodes>
            0 -1 21 -2.3122760467231274e-03</internalNodes>
          <leafValues>
            4.0142068266868591e-01 -5.1856005191802979e-01</leafValues></_>
        <_>
          <internalNodes>
            0 -1 56 -5.2250623703002930e-02</internalNodes>
          <leafValues>
            6.6157525777816772e-01 -3.5527375340461731e-01</leafValues></_>
        <_>
          <internalNodes>
            0 -1 15 -1.2098200619220734e-01</internalNodes>
          <leafValues>
            8.8993060588836670e-01 -3.0307781696319580e-01</leafValues></_></weakClassifiers></_></stages>
  <features>
    <_>
      <rects>
        <_>
          0 2 2 16 -1.</_>
        <_>
          1 2 1 16 2.</_></rects>
      <tilted>0</tilted></_>
    <_>
      <rects>
        <_>
          0 3 6 14 -1.</_>
        <_>
          2 3 2 14 3.</_></rects>
      <tilted>0</tilted></_>
    <_>
      <rects>
        <_>
          0 5 2 11 -1.</_>
        <_>
          1 5 1 11 2.</_></rects>
      <tilted>0</tilted></_>
    <_>
      <rects>
        <_>
          0 5 2 13 -1.</_>
        <_>
          1 5 1 13 2.</_></rects>
      <tilted>0</tilted></_>
    <_>
      <rects>
        <_>
          1 5 2 9 -1.</_>
        <_>
          1 8 2 3 3.</_></rects>
      <tilted>0</tilted></_>
    <_>
      <rects>
        <_>
          1 7 3 6 -1.</_>
        <_>
          2 7 1 6 3.</_></rects>
      <tilted>0</tilted></_>
    <_>
      <rects>
        <_>
          2 5 9 10 -1.</_>
        <_>
          5 5 3 10 3.</_></rects>
      <tilted>0</tilted></_>
    <_>
      <rects>
        <_>
          2 5 6 11 -1.</_>
        <_>
          5 5 3 11 2.</_></rects>
      <tilted>0</tilted></_>
    <_>
      <rects>
        <_>
          2 5 14 11 -1.</_>
        <_>
          9 5 7 11 2.</_></rects>
      <tilted>0</tilted></_>
    <_>
      <rects>
        <_>
          3 4 15 1 -1.</_>
        <_>
          8 4 5 1 3.</_></rects>
      <tilted>0</tilted></_>
    <_>
      <rects>
        <_>
          3 4 15 12 -1.</_>
        <_>
          8 4 5 12 3.</_></rects>
      <tilted>0</tilted></_>
    <_>
      <rects>
        <_>
          3 14 6 2 -1.</_>
        <_>
          3 14 3 1 2.</_>
        <_>
          6 15 3 1 2.</_></rects>
      <tilted>0</tilted></_>
    <_>
      <rects>
        <_>
          3 15 13 2 -1.</_>
        <_>
          3 16 13 1 2.</_></rects>
      <tilted>0</tilted></_>
    <_>
      <rects>
        <_>
          3 16 15 1 -1.</_>
        <_>
          8 16 5 1 3.</_></rects>
      <tilted>0</tilted></_>
    <_>
      <rects>
        <_>
          4 0 13 6 -1.</_>
        <_>
          4 2 13 2 3.</_></rects>
      <tilted>0</tilted></_>
    <_>
      <rects>
        <_>
          4 1 12 18 -1.</_>
        <_>
          4 1 6 9 2.</_>
        <_>
          10 10 6 9 2.</_></rects>
      <tilted>0</tilted></_>
    <_>
      <rects>
        <_>
          4 3 12 2 -1.</_>
        <_>
          4 4 12 1 2.</_></rects>
      <tilted>0</tilted></_>
    <_>
      <rects>
        <_>
          4 4 8 2 -1.</_>
        <_>
          4 4 4 1 2.</_>
        <_>
          8 5 4 1 2.</_></rects>
      <tilted>0</tilted></_>
    <_>
      <rects>
        <_>
          4 7 12 9 -1.</_>
        <_>
          8 7 4 9 3.</_></rects>
      <tilted>0</tilted></_>
    <_>
      <rects>
        <_>
          4 14 2 2 -1.</_>
        <_>
          5 14 1 2 2.</_></rects>
      <tilted>0</tilted></_>
    <_>
      <rects>
        <_>
          4 14 12 4 -1.</_>
        <_>
          4 16 12 2 2.</_></rects>
      <tilted>0</tilted></_>
    <_>
      <rects>
        <_>
          4 15 8 2 -1.</_>
        <_>
          4 15 4 1 2.</_>
        <_>
          8 16 4 1 2.</_></rects>
      <tilted>0</tilted></_>
    <_>
      <rects>
        <_>
          4 18 11 2 -1.</_>
        <_>
          4 19 11 1 2.</_></rects>
      <tilted>0</tilted></_>
    <_>
      <rects>
        <_>
          5 3 10 6 -1.</_>
        <_>
          5 5 10 2 3.</_></rects>
      <tilted>0</tilted></_>
    <_>
      <rects>
        <_>
          5 3 11 6 -1.</_>
        <_>
          5 5 11 2 3.</_></rects>
      <tilted>0</tilted></_>
    <_>
      <rects>
        <_>
          5 10 3 1 -1.</_>
        <_>
          6 10 1 1 3.</_></rects>
      <tilted>0</tilted></_>
    <_>
      <rects>
        <_>
          5 10 2 2 -1.</_>
        <_>
          6 10 1 2 2.</_></rects>
      <tilted>0</tilted></_>
    <_>
      <rects>
        <_>
          5 10 10 9 -1.</_>
        <_>
          5 13 10 3 3.</_></rects>
      <tilted>0</tilted></_>
    <_>
      <rects>
        <_>
          5 11 9 7 -1.</_>
        <_>
          8 11 3 7 3.</_></rects>
      <tilted>0</tilted></_>
    <_>
      <rects>
        <_>
          5 11 9 4 -1.</_>
        <_>
          5 13 9 2 2.</_></rects>
      <tilted>0</tilted></_>
    <_>
      <rects>
        <_>
          5 12 11 6 -1.</_>
        <_>
          5 14 11 2 3.</_></rects>
      <tilted>0</tilted></_>
    <_>
      <rects>
        <_>
          5 18 10 2 -1.</_>
        <_>
          5 19 10 1 2.</_></rects>
      <tilted>0</tilted></_>
    <_>
      <rects>
        <_>
          5 18 13 2 -1.</_>
        <_>
          5 19 13 1 2.</_></rects>
      <tilted>0</tilted></_>
    <_>
      <rects>
        <_>
          6 4 12 9 -1.</_>
        <_>
          12 4 6 9 2.</_></rects>
      <tilted>0</tilted></_>
    <_>
      <rects>
        <_>
          8 4 4 12 -1.</_>
        <_>
          8 8 4 4 3.</_></rects>
      <tilted>0</tilted></_>
    <_>
      <rects>
        <_>
          8 4 5 12 -1.</_>
        <_>
          8 8 5 4 3.</_></rects>
      <tilted>0</tilted></_>
    <_>
      <rects>
        <_>
          8 5 4 1 -1.</_>
        <_>
          10 5 2 1 2.</_></rects>
      <tilted>0</tilted></_>
    <_>
      <rects>
        <_>
          8 9 2 6 -1.</_>
        <_>
          8 12 2 3 2.</_></rects>
      <tilted>0</tilted></_>
    <_>
      <rects>
        <_>
          8 10 3 1 -1.</_>
        <_>
          9 10 1 1 3.</_></rects>
      <tilted>0</tilted></_>
    <_>
      <rects>
        <_>
          8 15 4 1 -1.</_>
        <_>
          10 15 2 1 2.</_></rects>
      <tilted>0</tilted></_>
    <_>
      <rects>
        <_>
          8 15 6 1 -1.</_>
        <_>
          11 15 3 1 2.</_></rects>
      <tilted>0</tilted></_>
    <_>
      <rects>
        <_>
          9 4 2 2 -1.</_>
        <_>
          9 5 2 1 2.</_></rects>
      <tilted>0</tilted></_>
    <_>
      <rects>
        <_>
          9 5 4 1 -1.</_>
        <_>
          11 5 2 1 2.</_></rects>
      <tilted>0</tilted></_>
    <_>
      <rects>
        <_>
          9 5 6 1 -1.</_>
        <_>
          11 5 2 1 3.</_></rects>
      <tilted>0</tilted></_>
    <_>
      <rects>
        <_>
          9 10 2 1 -1.</_>
        <_>
          10 10 1 1 2.</_></rects>
      <tilted>0</tilted></_>
    <_>
      <rects>
        <_>
          9 14 2 2 -1.</_>
        <_>
          9 15 2 1 2.</_></rects>
      <tilted>0</tilted></_>
    <_>
      <rects>
        <_>
          9 15 3 1 -1.</_>
        <_>
          10 15 1 1 3.</_></rects>
      <tilted>0</tilted></_>
    <_>
      <rects>
        <_>
          9 15 4 1 -1.</_>
        <_>
          11 15 2 1 2.</_></rects>
      <tilted>0</tilted></_>
    <_>
      <rects>
        <_>
          10 4 1 2 -1.</_>
        <_>
          10 5 1 1 2.</_></rects>
      <tilted>0</tilted></_>
    <_>
      <rects>
        <_>
          10 5 2 1 -1.</_>
        <_>
          11 5 1 1 2.</_></rects>
      <tilted>0</tilted></_>
    <_>
      <rects>
        <_>
          10 5 9 11 -1.</_>
        <_>
          13 5 3 11 3.</_></rects>
      <tilted>0</tilted></_>
    <_>
      <rects>
        <_>
          10 14 1 2 -1.</_>
        <_>
          10 15 1 1 2.</_></rects>
      <tilted>0</tilted></_>
    <_>
      <rects>
        <_>
          10 15 4 2 -1.</_>
        <_>
          10 15 2 1 2.</_>
        <_>
          12 16 2 1 2.</_></rects>
      <tilted>0</tilted></_>
    <_>
      <rects>
        <_>
          11 5 6 1 -1.</_>
        <_>
          13 5 2 1 3.</_></rects>
      <tilted>0</tilted></_>
    <_>
      <rects>
        <_>
          11 14 6 2 -1.</_>
        <_>
          11 14 3 1 2.</_>
        <_>
          14 15 3 1 2.</_></rects>
      <tilted>0</tilted></_>
    <_>
      <rects>
        <_>
          12 4 6 12 -1.</_>
        <_>
          15 4 3 12 2.</_></rects>
      <tilted>0</tilted></_>
    <_>
      <rects>
        <_>
          12 5 8 8 -1.</_>
        <_>
          12 5 4 4 2.</_>
        <_>
          16 9 4 4 2.</_></rects>
      <tilted>0</tilted></_>
    <_>
      <rects>
        <_>
          12 13 6 2 -1.</_>
        <_>
          12 13 3 1 2.</_>
        <_>
          15 14 3 1 2.</_></rects>
      <tilted>0</tilted></_>
    <_>
      <rects>
        <_>
          15 4 2 8 -1.</_>
        <_>
          15 4 1 4 2.</_>
        <_>
          16 8 1 4 2.</_></rects>
      <tilted>0</tilted></_>
    <_>
      <rects>
        <_>
          15 9 3 1 -1.</_>
        <_>
          16 9 1 1 3.</_></rects>
      <tilted>0</tilted></_>
    <_>
      <rects>
        <_>
          15 11 2 4 -1.</_>
        <_>
          15 11 1 2 2.</_>
        <_>
          16 13 1 2 2.</_></rects>
      <tilted>0</tilted></_>
    <_>
      <rects>
        <_>
          15 12 2 2 -1.</_>
        <_>
          15 12 1 1 2.</_>
        <_>
          16 13 1 1 2.</_></rects>
      <tilted>0</tilted></_>
    <_>
      <rects>
        <_>
          18 6 2 8 -1.</_>
        <_>
          19 6 1 8 2.</_></rects>
      <tilted>0</tilted></_>
    <_>
      <rects>
        <_>
          18 7 2 6 -1.</_>
        <_>
          19 7 1 6 2.</_></rects>
      <tilted>0</tilted></_></features></cascade>
</opencv_storage>
